Language model created by QuickLM on Tue Jun 27 08:18:33 EDT 2017
Copyright (c) 1996-2010 Carnegie Mellon University and Alexander I. Rudnicky

The model is in standard ARPA format, designed by Doug Paul while he was at MITRE.

The code that was used to produce this language model is available in Open Source.
Please visit http://www.speech.cs.cmu.edu/tools/ for more information

The (fixed) discount mass is 0.5. The backoffs are computed using the ratio method.
This model based on a corpus of 6 sentences and 8 words

\data\
ngram 1=8
ngram 2=12
ngram 3=15

\1-grams:
-1.0000 </s> -0.3010
-1.0000 <s> -0.2553
-1.4771 KITCHEN -0.2553
-1.3010 OFF -0.2553
-1.3010 ON -0.2553
-1.4771 SOFA -0.2553
-1.4771 TABLE -0.2553
-1.0000 TURN -0.2553

\2-grams:
-0.3010 <s> TURN 0.0000
-0.6021 KITCHEN OFF 0.0000
-0.6021 KITCHEN ON 0.0000
-0.3010 OFF </s> -0.3010
-0.3010 ON </s> -0.3010
-0.6021 SOFA OFF 0.0000
-0.6021 SOFA ON 0.0000
-0.6021 TABLE OFF 0.0000
-0.6021 TABLE ON 0.0000
-0.7782 TURN KITCHEN 0.0000
-0.7782 TURN SOFA 0.0000
-0.7782 TURN TABLE 0.0000

\3-grams:
-0.7782 <s> TURN KITCHEN
-0.7782 <s> TURN SOFA
-0.7782 <s> TURN TABLE
-0.3010 KITCHEN OFF </s>
-0.3010 KITCHEN ON </s>
-0.3010 SOFA OFF </s>
-0.3010 SOFA ON </s>
-0.3010 TABLE OFF </s>
-0.3010 TABLE ON </s>
-0.6021 TURN KITCHEN OFF
-0.6021 TURN KITCHEN ON
-0.6021 TURN SOFA OFF
-0.6021 TURN SOFA ON
-0.6021 TURN TABLE OFF
-0.6021 TURN TABLE ON

\end\
